{
  "featureKeys": [
    "syncCue",
    "altDrive",
    "spread",
    "geoSymPair",
    "geoFlyRecovery",
    "geoBreastSweep",
    "kickAlternating",
    "kickSymmetric",
    "kneeFlexSync",
    "bodyRoll",
    "trunkHorizontal",
    "pairedOk",
    "hasSolidMotion",
    "bothBelowMid",
    "bothAboveMid",
    "backCue",
    "topView",
    "topSideView"
  ],
  "weights": [
    [
      -0.3724759210998232,
      1.0850222221362618,
      0.8735098376914104,
      -0.24596963035120925,
      -0.006017098774441081,
      -0.5341233593358469,
      1.003362028102603,
      -0.3677898213661452,
      -0.16129628641516483,
      0.7202271486118356,
      0.5318033120448455,
      0.6359049564966492,
      0.6359049564966492,
      -0.803199939625585,
      0,
      0,
      0,
      -0.803199939625585
    ],
    [
      -0.17570145328353043,
      -0.2346093957164886,
      -0.23332755528361895,
      -0.18263120147475378,
      -0.0924096589725266,
      -0.160084509113445,
      -0.22949219960012512,
      -0.1849744651916044,
      -0.20240396143655043,
      -0.19079785142674077,
      -0.13958095159099998,
      -0.3890459970715795,
      -0.3890459970715795,
      -0.1492091966642828,
      0,
      0,
      0,
      -0.1492091966642828
    ],
    [
      -0.17570145328353043,
      -0.2346093957164886,
      -0.23332755528361895,
      -0.18263120147475378,
      -0.0924096589725266,
      -0.160084509113445,
      -0.22949219960012512,
      -0.1849744651916044,
      -0.20240396143655043,
      -0.19079785142674077,
      -0.13958095159099998,
      -0.3890459970715795,
      -0.3890459970715795,
      -0.1492091966642828,
      0,
      0,
      0,
      -0.1492091966642828
    ],
    [
      0.7238788276668822,
      -0.6158034307032844,
      -0.4068547271241744,
      0.6112320333007162,
      0.19083641671949478,
      0.854292377562737,
      -0.5443776289023532,
      0.7377387517493551,
      0.5661042092882645,
      -0.33863144575835286,
      -0.252641408862845,
      0.14218703764650967,
      0.14218703764650967,
      1.1016183329541525,
      0,
      0,
      0,
      1.1016183329541525
    ]
  ],
  "biases": [
    0.6553905082022055,
    -0.40133034281887103,
    -0.40133034281887103,
    0.14727017743553614
  ]
}
